digraph Tree {
node [shape=box] ;
0 [label="StockOptionLevel <= 0.5\ngini = 0.5\nsamples = 1972\nvalue = [983, 989]\nclass = Yes"] ;
1 [label="JobSatisfaction <= 3.5\ngini = 0.439\nsamples = 1114\nvalue = [362, 752]\nclass = Yes"] ;
0 -> 1 [labeldistance=2.5, labelangle=45, headlabel="True"] ;
2 [label="gini = 0.376\nsamples = 945\nvalue = [237, 708]\nclass = Yes"] ;
1 -> 2 ;
3 [label="gini = 0.385\nsamples = 169\nvalue = [125, 44]\nclass = No"] ;
1 -> 3 ;
4 [label="JobInvolvement <= 2.5\ngini = 0.4\nsamples = 858\nvalue = [621, 237]\nclass = No"] ;
0 -> 4 [labeldistance=2.5, labelangle=-45, headlabel="False"] ;
5 [label="gini = 0.491\nsamples = 320\nvalue = [182, 138]\nclass = No"] ;
4 -> 5 ;
6 [label="gini = 0.3\nsamples = 538\nvalue = [439, 99]\nclass = No"] ;
4 -> 6 ;
}